// Layer 1 Weights
const float layer1_weights[] = {
1.084515, 0.006553, 1.014322, -0.970365, -0.978950, -0.925804, 1.064090, -0.970959, -0.009724, -0.951898, -0.010146, -0.002321, 1.075878, 1.023855, 1.058405, -0.977271, -0.967320, 0.010873, -0.961371, 1.108944, 0.913401, -0.974339, -0.006121, 0.005623,
-0.476604, -0.008369, -0.431570, 0.663839, 0.667699, 0.612797, -0.474645, 0.658662, -0.002908, 0.644014, 0.003281, -0.004555, -0.495145, -0.445343, -0.476612, 0.674084, 0.660146, -0.013419, 0.652071, -0.501356, -0.369218, 0.674349, -0.002492, -0.005499,
-0.405587, -0.011170, -0.331947, 0.580751, 0.595528, 0.520798, -0.366130, 0.589620, 0.000492, 0.539218, -0.001081, 0.002895, -0.370693, -0.328704, -0.355263, 0.597462, 0.583452, -0.023069, 0.589419, -0.426731, -0.204240, 0.586015, -0.007137, -0.012123,
};

// Layer 1 Biases
const float layer1_biases[] = {
0.233477, -0.002094, 0.176229, 0.380513, 0.382831, 0.372936, 0.208508, 0.380406, 0.000000, 0.381015, -0.002778, 0.000000, 0.220084, 0.178004, 0.203609, 0.378965, 0.377959, -0.001259, 0.374050, 0.255709, 0.085759, 0.379613, 0.000000, -0.001117
};

// Layer 2 Weights
const float layer2_weights[] = {
1.030820, 1.027755, 1.043397, 1.055096, 1.035534, 1.055552, 1.038474, 1.022358, 1.031770, 1.016698, 1.059606, 1.033371, 1.031069, 1.032658, 1.042639, 1.028958, 1.053293, 1.029916, 1.026155, 1.019550, 1.026606, 1.017550, 1.018106, 1.019647,
0.019104, -0.004606, 0.002304, -0.031670, 0.017246, 0.001691, -0.002206, 0.007470, -0.000497, -0.019924, -0.010358, -0.004754, 0.010135, 0.001199, 0.024658, 0.005617, -0.005617, -0.000463, -0.020481, -0.015133, -0.019506, -0.001825, 0.001892, 0.017278,
0.978480, 0.967760, 0.994013, 0.990071, 1.010060, 0.965189, 0.976500, 0.990122, 0.979698, 0.979602, 0.982970, 0.982052, 0.988059, 0.984343, 0.974953, 1.003905, 0.976758, 0.975436, 0.971223, 0.989469, 0.987532, 0.992225, 0.970553, 0.983891,
-0.916668, -0.930222, -0.937741, -0.952728, -0.936548, -0.915336, -0.929515, -0.931336, -0.947734, -0.948457, -0.944667, -0.933100, -0.931480, -0.937112, -0.935031, -0.949141, -0.933820, -0.952243, -0.927278, -0.957013, -0.947267, -0.940473, -0.931563, -0.935869,
-0.959207, -0.931208, -0.940396, -0.958538, -0.944192, -0.939847, -0.938273, -0.938993, -0.932464, -0.935358, -0.950428, -0.968031, -0.936603, -0.932340, -0.948781, -0.937243, -0.950180, -0.942130, -0.944750, -0.959390, -0.958149, -0.945028, -0.931726, -0.961868,
-0.898009, -0.912485, -0.908503, -0.909681, -0.899305, -0.909763, -0.897248, -0.899042, -0.899269, -0.903536, -0.903892, -0.883486, -0.898324, -0.898158, -0.893261, -0.888175, -0.897960, -0.906517, -0.901525, -0.900322, -0.905573, -0.909154, -0.889758, -0.908158,
1.020780, 0.999816, 1.003438, 1.023704, 0.998956, 1.012591, 1.014757, 1.017783, 0.991826, 1.004669, 1.010264, 1.026321, 0.985154, 1.017091, 1.012339, 1.003938, 1.025458, 1.022936, 1.017767, 1.014800, 1.027821, 1.025306, 0.994494, 1.021513,
-0.948381, -0.929078, -0.935602, -0.942414, -0.941823, -0.946836, -0.950230, -0.932881, -0.950448, -0.939417, -0.947597, -0.942572, -0.935941, -0.944648, -0.933288, -0.941286, -0.945526, -0.933184, -0.926478, -0.949017, -0.947662, -0.922376, -0.933929, -0.930137,
-0.020175, 0.009660, 0.007472, 0.003199, 0.009423, 0.002060, -0.012060, -0.002162, 0.006154, -0.015920, 0.009626, 0.001956, 0.009971, 0.016291, 0.000035, 0.016868, -0.010437, -0.017950, -0.008333, 0.010564, -0.009844, -0.012054, -0.007830, -0.002188,
-0.913708, -0.909025, -0.915722, -0.919976, -0.928755, -0.914897, -0.912774, -0.911488, -0.915117, -0.913616, -0.930957, -0.919824, -0.898153, -0.919031, -0.924296, -0.915732, -0.946165, -0.935029, -0.915267, -0.923312, -0.929907, -0.896896, -0.909873, -0.932781,
-0.011548, 0.002790, 0.021787, -0.014251, -0.003306, 0.002103, -0.000349, 0.011699, 0.009080, -0.002401, -0.004062, 0.002654, -0.013211, 0.006229, -0.001882, 0.003886, 0.010271, -0.004816, -0.013141, -0.008743, 0.002657, 0.012390, 0.009792, -0.001693,
-0.026255, -0.015254, 0.001769, 0.004554, -0.004494, -0.006992, -0.005052, -0.010859, 0.012000, -0.003009, -0.004868, 0.003809, -0.009957, -0.014549, 0.006048, -0.002516, -0.014713, 0.000814, -0.001534, 0.006961, 0.008400, 0.010251, -0.011411, -0.007243,
1.013613, 1.013516, 1.036231, 1.020785, 1.021453, 1.036407, 0.996604, 1.040455, 1.039322, 1.023997, 1.011031, 1.018621, 1.008380, 1.016936, 1.023495, 1.023248, 0.991695, 1.017290, 1.015399, 1.006352, 1.053788, 1.021341, 0.997804, 1.019359,
0.992442, 0.989767, 0.983666, 0.975015, 0.995664, 0.979617, 0.994027, 0.983584, 0.985372, 0.982276, 0.996237, 0.981091, 0.998513, 0.989087, 0.991704, 0.982854, 0.986784, 0.975760, 0.972366, 0.991564, 1.018227, 0.969162, 0.962993, 0.977772,
1.012443, 1.016064, 1.011981, 0.997910, 1.018386, 0.999856, 0.996120, 1.003743, 1.014038, 1.014337, 1.038668, 1.003918, 0.990689, 1.015801, 0.993905, 1.010542, 1.008384, 1.019261, 0.981686, 1.002784, 1.021828, 1.001800, 0.976515, 1.026560,
-0.951327, -0.942737, -0.935615, -0.946332, -0.953114, -0.961261, -0.940387, -0.942286, -0.939542, -0.956306, -0.932150, -0.941120, -0.940542, -0.960209, -0.928814, -0.965834, -0.935810, -0.966106, -0.953695, -0.931097, -0.966306, -0.942646, -0.910220, -0.924985,
-0.925171, -0.937503, -0.944098, -0.935488, -0.924637, -0.943249, -0.928600, -0.953930, -0.942221, -0.927435, -0.933969, -0.946481, -0.919941, -0.931301, -0.942965, -0.948712, -0.938861, -0.948507, -0.945853, -0.933649, -0.944587, -0.928394, -0.917046, -0.937596,
0.014208, 0.016751, -0.007443, 0.001666, 0.004166, -0.005554, 0.017330, -0.019425, 0.009435, -0.007927, -0.014918, -0.012100, -0.009871, -0.015247, -0.004804, -0.024449, 0.006399, 0.000801, 0.012901, -0.000536, 0.006146, 0.011479, -0.001395, 0.004704,
-0.949609, -0.925629, -0.931333, -0.921486, -0.942253, -0.928484, -0.939478, -0.952083, -0.935140, -0.923581, -0.951702, -0.936196, -0.932597, -0.931239, -0.946314, -0.934799, -0.921802, -0.935840, -0.903965, -0.937745, -0.937496, -0.930630, -0.934918, -0.940278,
1.062660, 1.037716, 1.046208, 1.043919, 1.053764, 1.062506, 1.038377, 1.045075, 1.059752, 1.043543, 1.044910, 1.069255, 1.032206, 1.055751, 1.032970, 1.039442, 1.048371, 1.054540, 1.036300, 1.048480, 1.087800, 1.039007, 1.038524, 1.042975,
0.915553, 0.920916, 0.912636, 0.913392, 0.921547, 0.925272, 0.929660, 0.908050, 0.911878, 0.912794, 0.923218, 0.910397, 0.896344, 0.922954, 0.916903, 0.911677, 0.910050, 0.910429, 0.909456, 0.918683, 0.900369, 0.910232, 0.905476, 0.896620,
-0.945708, -0.923772, -0.955316, -0.947435, -0.935707, -0.944010, -0.936533, -0.955301, -0.935960, -0.927694, -0.951871, -0.949396, -0.940398, -0.960773, -0.926028, -0.943857, -0.924140, -0.932559, -0.951055, -0.952340, -0.941088, -0.923799, -0.937397, -0.945928,
0.009639, 0.011980, 0.020396, 0.000024, 0.003673, -0.009179, -0.000333, -0.007163, 0.014664, -0.009895, 0.006197, -0.004764, -0.015977, 0.004299, -0.008253, 0.013143, 0.005394, 0.007620, -0.014522, -0.002834, -0.004980, 0.004644, 0.008570, -0.000799,
0.006424, 0.006738, 0.002513, -0.019735, -0.001711, -0.005360, 0.002427, 0.001850, 0.011299, 0.000143, 0.003488, 0.003468, 0.011521, -0.009526, -0.004495, -0.001949, 0.008278, -0.009421, -0.013987, 0.014244, -0.022037, 0.004104, -0.008842, 0.008086,
};

// Layer 2 Biases
const float layer2_biases[] = {
-0.256468, -0.302705, -0.267510, -0.237554, -0.276222, -0.269556, -0.295994, -0.258554, -0.262446, -0.290044, -0.239897, -0.249991, -0.313502, -0.258847, -0.281551, -0.249928, -0.273973, -0.231330, -0.287918, -0.235023, -0.214936, -0.309557, -0.324399, -0.253242
};

// Layer 3 Weights
const float layer3_weights[] = {
0.563330, 0.513435, 0.539241, 0.574716, 0.536684, 0.529638, 0.540921, 0.529732, 0.540825, 0.519168, 0.555148, 0.526077, 0.544874, 0.526467, 0.530505, 0.528082, 0.543659, 0.544570, 0.555359, -0.256040, 0.552826, 0.537570, 0.568321, 0.574373,
0.494694, 0.509340, 0.499221, 0.535519, 0.492694, 0.489398, 0.497237, 0.496726, 0.524203, 0.511382, 0.503691, 0.496863, 0.476601, 0.498401, 0.498877, 0.505363, 0.479944, 0.505167, 0.529065, -0.285654, 0.489069, 0.531472, 0.511454, 0.556462,
0.534087, 0.523923, 0.523217, 0.556930, 0.542134, 0.529161, 0.542293, 0.525883, 0.540319, 0.528216, 0.573674, 0.526222, 0.517002, 0.532534, 0.528973, 0.528558, 0.525888, 0.532350, 0.539467, -0.256672, 0.547628, 0.533245, 0.547451, 0.570355,
0.558999, 0.546479, 0.544976, 0.566279, 0.539854, 0.559159, 0.537346, 0.543575, 0.548354, 0.532627, 0.562541, 0.522948, 0.546940, 0.542643, 0.554007, 0.532152, 0.539554, 0.539152, 0.565645, -0.258507, 0.561485, 0.564199, 0.560322, 0.570200,
0.534114, 0.541125, 0.529607, 0.558381, 0.509319, 0.556088, 0.540889, 0.530456, 0.536173, 0.522031, 0.542133, 0.522969, 0.547281, 0.521184, 0.542557, 0.531049, 0.523705, 0.524698, 0.554427, -0.242504, 0.528616, 0.553200, 0.566141, 0.563510,
0.542729, 0.529466, 0.516650, 0.557004, 0.520712, 0.536239, 0.525195, 0.529712, 0.560043, 0.505521, 0.549731, 0.518204, 0.530733, 0.555705, 0.554313, 0.530890, 0.537273, 0.539836, 0.530390, -0.247203, 0.542960, 0.544342, 0.582709, 0.554947,
0.529791, 0.498197, 0.504401, 0.530891, 0.525746, 0.504850, 0.497477, 0.503295, 0.506317, 0.499382, 0.531548, 0.493188, 0.501222, 0.505817, 0.520202, 0.521608, 0.509795, 0.513309, 0.533662, -0.238743, 0.513750, 0.525864, 0.531430, 0.551212,
0.541286, 0.528682, 0.549648, 0.551536, 0.519855, 0.535284, 0.536378, 0.524835, 0.535551, 0.542853, 0.544458, 0.536156, 0.543014, 0.523772, 0.530835, 0.521692, 0.534462, 0.519792, 0.536501, -0.246098, 0.535945, 0.537702, 0.557218, 0.569759,
0.538358, 0.525573, 0.535081, 0.544520, 0.519956, 0.522230, 0.531963, 0.536512, 0.550884, 0.535338, 0.531636, 0.520278, 0.534776, 0.524772, 0.542615, 0.547683, 0.549643, 0.532118, 0.553064, -0.261026, 0.553276, 0.536274, 0.566660, 0.568384,
0.507444, 0.512933, 0.511022, 0.540706, 0.500164, 0.508173, 0.513565, 0.533339, 0.510162, 0.501513, 0.538269, 0.505148, 0.505610, 0.503545, 0.516976, 0.502379, 0.507030, 0.526406, 0.553960, -0.234417, 0.538763, 0.537396, 0.539820, 0.574642,
0.556583, 0.535834, 0.552304, 0.563672, 0.547189, 0.553302, 0.550789, 0.559478, 0.573394, 0.537458, 0.552607, 0.562071, 0.538075, 0.556518, 0.565809, 0.534903, 0.549634, 0.565701, 0.539519, -0.245447, 0.563245, 0.551244, 0.581567, 0.588276,
0.540382, 0.537174, 0.550183, 0.566534, 0.519803, 0.536927, 0.520155, 0.519264, 0.548707, 0.531169, 0.567817, 0.541365, 0.544471, 0.536528, 0.552469, 0.542326, 0.553510, 0.554699, 0.536016, -0.246264, 0.534550, 0.545586, 0.577363, 0.579721,
0.504771, 0.497782, 0.488433, 0.507968, 0.476785, 0.494749, 0.484301, 0.483542, 0.502564, 0.473447, 0.482893, 0.486179, 0.472619, 0.498923, 0.488584, 0.488178, 0.485112, 0.502976, 0.514314, -0.250526, 0.481534, 0.497865, 0.531904, 0.540281,
0.521574, 0.528344, 0.545291, 0.569409, 0.509716, 0.527959, 0.544212, 0.536657, 0.546219, 0.529968, 0.547756, 0.527793, 0.531853, 0.549847, 0.543272, 0.531719, 0.540573, 0.541179, 0.579216, -0.249416, 0.531347, 0.552465, 0.577385, 0.571227,
0.523788, 0.508589, 0.517472, 0.531727, 0.512024, 0.511794, 0.510928, 0.504692, 0.505711, 0.510685, 0.536351, 0.521690, 0.504721, 0.510935, 0.499802, 0.519506, 0.531620, 0.523038, 0.540841, -0.263184, 0.546791, 0.521685, 0.548129, 0.558838,
0.536429, 0.538769, 0.537058, 0.552810, 0.532210, 0.550624, 0.521596, 0.512658, 0.527365, 0.544337, 0.546182, 0.526730, 0.530103, 0.541773, 0.547673, 0.547328, 0.559799, 0.533901, 0.535303, -0.244375, 0.554825, 0.555299, 0.570132, 0.571451,
0.527203, 0.537916, 0.518345, 0.551893, 0.521751, 0.538742, 0.510600, 0.532348, 0.548597, 0.519972, 0.522768, 0.515566, 0.516321, 0.519541, 0.536189, 0.532608, 0.496640, 0.548195, 0.535935, -0.251045, 0.539340, 0.538700, 0.539414, 0.561692,
0.553437, 0.541404, 0.537748, 0.572186, 0.524249, 0.551631, 0.544271, 0.544114, 0.545403, 0.543613, 0.545597, 0.544917, 0.542539, 0.556183, 0.552740, 0.543191, 0.538439, 0.529275, 0.545188, -0.244218, 0.577630, 0.572068, 0.569130, 0.570181,
0.511337, 0.489494, 0.509433, 0.528642, 0.495402, 0.519855, 0.512147, 0.506939, 0.512886, 0.476202, 0.531025, 0.484700, 0.499508, 0.496487, 0.489058, 0.507948, 0.490032, 0.528618, 0.553106, -0.244232, 0.518077, 0.519816, 0.532997, 0.542323,
0.540053, 0.522795, 0.543612, 0.544665, 0.553965, 0.556738, 0.519202, 0.542299, 0.547409, 0.523644, 0.559011, 0.528823, 0.526497, 0.537293, 0.551879, 0.538689, 0.529826, 0.541592, 0.533527, -0.243065, 0.558883, 0.554667, 0.568658, 0.599173,
0.581569, 0.572442, 0.585212, 0.581959, 0.556271, 0.555423, 0.581109, 0.569174, 0.578585, 0.562325, 0.593433, 0.563359, 0.586977, 0.576227, 0.565621, 0.582153, 0.579654, 0.565126, 0.557171, -0.240148, 0.582056, 0.581346, 0.589051, 0.617438,
0.504130, 0.485120, 0.503896, 0.518520, 0.493681, 0.517968, 0.489486, 0.497111, 0.531801, 0.504340, 0.519070, 0.493309, 0.506561, 0.497802, 0.489414, 0.503033, 0.480298, 0.488889, 0.531475, -0.270344, 0.498262, 0.522397, 0.518848, 0.531367,
0.461510, 0.478946, 0.467187, 0.488466, 0.480497, 0.477848, 0.453454, 0.455882, 0.473754, 0.483899, 0.477309, 0.466424, 0.461993, 0.467881, 0.456842, 0.486411, 0.463898, 0.505247, 0.512025, -0.278237, 0.482187, 0.500397, 0.497183, 0.485306,
0.529901, 0.541507, 0.556434, 0.549259, 0.524262, 0.531840, 0.529245, 0.523986, 0.521261, 0.539131, 0.533485, 0.534873, 0.520489, 0.548808, 0.553302, 0.530104, 0.532487, 0.535681, 0.540492, -0.246344, 0.541099, 0.557690, 0.534835, 0.590026,
};

// Layer 3 Biases
const float layer3_biases[] = {
-1.349195, -1.406260, -1.399377, -1.350374, -1.423675, -1.449027, -1.436421, -1.471385, -1.342968, -1.465933, -1.389126, -1.453631, -1.423619, -1.424435, -1.380316, -1.455932, -1.400352, -1.426074, -1.407016, 0.342840, -1.357644, -1.391715, -1.326977, -0.813664
};

// Layer 4 Weights
const float layer4_weights[] = {
-0.157909, -0.148481, 0.253745, -0.149599, -0.128557, -0.157118, -0.107156, -0.160556, -0.124690, -0.145418, -0.135469, -0.184798, -0.144285, 0.259377, -0.212387, -0.166059,
-0.243175, -0.207297, 0.333833, -0.214117, -0.216039, -0.207207, -0.194539, -0.258792, -0.194106, -0.221572, -0.190938, -0.249139, -0.213095, 0.319703, -0.253059, -0.205749,
-0.248785, -0.231652, 0.350947, -0.204023, -0.222178, -0.212226, -0.178890, -0.243824, -0.218680, -0.228782, -0.221555, -0.257383, -0.195578, 0.327393, -0.257550, -0.216879,
-0.175377, -0.160830, 0.289974, -0.135815, -0.157624, -0.164583, -0.103655, -0.193389, -0.139588, -0.153726, -0.141840, -0.181711, -0.148715, 0.276016, -0.212625, -0.152014,
-0.253795, -0.241747, 0.350590, -0.235063, -0.237156, -0.244935, -0.210335, -0.273124, -0.246550, -0.225531, -0.235826, -0.263983, -0.226465, 0.347740, -0.276275, -0.242402,
-0.296140, -0.272880, 0.408309, -0.277647, -0.264208, -0.292785, -0.246245, -0.324896, -0.277012, -0.262140, -0.278514, -0.313765, -0.275032, 0.409350, -0.328844, -0.293203,
-0.279216, -0.273783, 0.397573, -0.253160, -0.262559, -0.267510, -0.236683, -0.294001, -0.261048, -0.275096, -0.275722, -0.293415, -0.257782, 0.376958, -0.308359, -0.275671,
-0.327247, -0.325413, 0.450753, -0.331676, -0.313921, -0.330620, -0.280392, -0.338213, -0.334866, -0.328367, -0.302698, -0.341900, -0.324067, 0.443616, -0.363140, -0.340654,
-0.181030, -0.157162, 0.254030, -0.142542, -0.138123, -0.157595, -0.108715, -0.174241, -0.125393, -0.151598, -0.131356, -0.174343, -0.124770, 0.265070, -0.196470, -0.143142,
-0.316417, -0.329798, 0.432751, -0.325548, -0.317030, -0.338168, -0.262010, -0.335893, -0.311551, -0.320976, -0.311799, -0.326849, -0.315320, 0.430575, -0.345069, -0.324707,
-0.202534, -0.223574, 0.341213, -0.195507, -0.209604, -0.237741, -0.153008, -0.237551, -0.198999, -0.222878, -0.183649, -0.238473, -0.175959, 0.332274, -0.251858, -0.210814,
-0.294136, -0.304534, 0.412108, -0.279250, -0.288475, -0.306946, -0.266769, -0.311178, -0.279001, -0.286963, -0.279573, -0.308227, -0.288470, 0.397799, -0.340228, -0.304086,
-0.266404, -0.246154, 0.363974, -0.225457, -0.268912, -0.258317, -0.221292, -0.273166, -0.224056, -0.235262, -0.239694, -0.259791, -0.244702, 0.356784, -0.293285, -0.248556,
-0.269581, -0.245933, 0.377272, -0.243599, -0.255985, -0.264975, -0.215407, -0.281608, -0.239377, -0.254129, -0.233261, -0.272518, -0.227773, 0.359432, -0.294850, -0.253976,
-0.192935, -0.202484, 0.312498, -0.180692, -0.203305, -0.212266, -0.154290, -0.216195, -0.174773, -0.181101, -0.171308, -0.216873, -0.174026, 0.299086, -0.237044, -0.195447,
-0.317431, -0.305399, 0.420040, -0.277947, -0.298301, -0.287505, -0.270209, -0.308663, -0.304397, -0.275832, -0.276194, -0.319027, -0.265037, 0.420871, -0.326184, -0.288724,
-0.229401, -0.225541, 0.328837, -0.206384, -0.230780, -0.222603, -0.179183, -0.244497, -0.188617, -0.219471, -0.210671, -0.224269, -0.203073, 0.325187, -0.266161, -0.206786,
-0.238564, -0.234423, 0.376301, -0.224828, -0.242245, -0.248934, -0.216260, -0.265676, -0.229586, -0.213484, -0.234783, -0.265625, -0.230438, 0.358463, -0.269256, -0.227581,
-0.205089, -0.194275, 0.324175, -0.169953, -0.197875, -0.209881, -0.179152, -0.202009, -0.175759, -0.147586, -0.185070, -0.223187, -0.201371, 0.334960, -0.242552, -0.167914,
0.889353, 0.924262, -0.815588, 0.948239, 0.915817, 0.911791, 0.904901, 0.869537, 0.951287, 0.945737, 0.937902, 0.879857, 0.939402, -0.810820, 0.821822, 0.908203,
-0.170582, -0.157126, 0.278386, -0.143044, -0.164622, -0.185290, -0.130414, -0.185225, -0.153256, -0.146206, -0.134349, -0.196635, -0.128729, 0.272071, -0.217953, -0.163279,
-0.217229, -0.196799, 0.325652, -0.196770, -0.205128, -0.217334, -0.147438, -0.228652, -0.181701, -0.195395, -0.191867, -0.239021, -0.189687, 0.334350, -0.254108, -0.203859,
-0.154280, -0.137203, 0.261144, -0.091046, -0.122457, -0.146546, -0.102099, -0.170676, -0.112675, -0.113915, -0.102116, -0.158684, -0.102288, 0.243950, -0.196978, -0.128323,
0.105983, 0.114796, 0.000987, 0.173779, 0.129326, 0.129521, 0.231923, 0.092735, 0.174489, 0.134559, 0.171881, 0.082700, 0.161284, -0.013576, 0.052705, 0.137654,
};

// Layer 4 Biases
const float layer4_biases[] = {
1.181031, 1.204583, -1.173713, 1.221237, 1.208437, 1.185689, 1.122108, 1.150784, 1.211464, 1.234904, 1.210783, 1.137248, 1.183216, -1.111669, 1.115711, 1.197394
};

// Layer 5 Weights
const float layer5_weights[] = {
0.384150, 0.235802, -0.748347,
0.415337, 0.278460, -0.774872,
-0.893480, -0.351715, 1.051291,
0.416510, 0.312503, -0.788972,
0.435341, 0.300822, -0.806394,
0.400574, 0.255580, -0.760781,
0.267489, 0.239596, -0.691092,
0.391828, 0.223973, -0.727763,
0.396948, 0.294071, -0.792549,
0.435574, 0.314798, -0.822895,
0.391545, 0.291571, -0.792787,
0.370116, 0.205046, -0.721031,
0.363025, 0.264706, -0.765461,
-0.849882, -0.330449, 1.014276,
0.387062, 0.188966, -0.723838,
0.398995, 0.268951, -0.781541,
};

// Layer 5 Biases
const float layer5_biases[] = {
-0.482270, -0.191309, 0.885530
};

